<?xml version="1.0"?>
<opencv_storage>
<stage7>
  <maxWeakCount>100</maxWeakCount>
  <stageThreshold>-9.2999869585037231e-01</stageThreshold>
  <weakClassifiers>
    <_>
      <internalNodes>
        0 -1 32481 7.1560613811016083e-02</internalNodes>
      <leafValues>
        1.6432866454124451e-01 7.1150815486907959e-01</leafValues></_>
    <_>
      <internalNodes>
        0 -1 725 1.3690970838069916e-02</internalNodes>
      <leafValues>
        -6.6979005932807922e-02 4.0907886624336243e-01</leafValues></_>
    <_>
      <internalNodes>
        0 -1 13139 1.5436616539955139e-01</internalNodes>
      <leafValues>
        -1.0432144999504089e-01 3.6101549863815308e-01</leafValues></_>
    <_>
      <internalNodes>
        0 -1 47283 7.6382779516279697e-03</internalNodes>
      <leafValues>
        2.8868542984127998e-02 -5.2904593944549561e-01</leafValues></_>
    <_>
      <internalNodes>
        0 -1 48238 -1.0268525220453739e-03</internalNodes>
      <leafValues>
        -2.8378778696060181e-01 1.2229549139738083e-01</leafValues></_>
    <_>
      <internalNodes>
        0 -1 60792 6.9833372253924608e-04</internalNodes>
      <leafValues>
        -1.4250004291534424e-01 2.0911502838134766e-01</leafValues></_>
    <_>
      <internalNodes>
        0 -1 67632 3.2894066534936428e-03</internalNodes>
      <leafValues>
        3.6455705761909485e-02 -6.8427687883377075e-01</leafValues></_>
    <_>
      <internalNodes>
        0 -1 60641 2.8270836919546127e-02</internalNodes>
      <leafValues>
        -8.2173071801662445e-02 3.1429439783096313e-01</leafValues></_>
    <_>
      <internalNodes>
        0 -1 64532 1.9977909978479147e-03</internalNodes>
      <leafValues>
        5.8867119252681732e-02 -4.5667201280593872e-01</leafValues></_>
    <_>
      <internalNodes>
        0 -1 44023 -4.3724548071622849e-02</internalNodes>
      <leafValues>
        1.2455799430608749e-01 -2.1577773988246918e-01</leafValues></_>
    <_>
      <internalNodes>
        0 -1 73117 -1.5310868620872498e-02</internalNodes>
      <leafValues>
        2.9031288623809814e-01 -8.6664691567420959e-02</leafValues></_>
    <_>
      <internalNodes>
        0 -1 37164 6.7894253879785538e-03</internalNodes>
      <leafValues>
        -1.3091169297695160e-01 1.6648699343204498e-01</leafValues></_>
    <_>
      <internalNodes>
        0 -1 4617 4.1320450603961945e-02</internalNodes>
      <leafValues>
        -1.1605399101972580e-01 2.4763007462024689e-01</leafValues></_>
    <_>
      <internalNodes>
        0 -1 42663 6.9540515542030334e-02</internalNodes>
      <leafValues>
        4.5463249087333679e-02 -5.8634597063064575e-01</leafValues></_>
    <_>
      <internalNodes>
        0 -1 36451 1.1488313972949982e-01</internalNodes>
      <leafValues>
        -4.8988796770572662e-02 5.1904106140136719e-01</leafValues></_>
    <_>
      <internalNodes>
        0 -1 47687 4.2300233617424965e-03</internalNodes>
      <leafValues>
        -1.0539155453443527e-01 2.0938885211944580e-01</leafValues></_>
    <_>
      <internalNodes>
        0 -1 64756 -3.3143379259854555e-03</internalNodes>
      <leafValues>
        -2.5595337152481079e-01 7.1175016462802887e-02</leafValues></_>
    <_>
      <internalNodes>
        0 -1 41553 -5.1161073148250580e-02</internalNodes>
      <leafValues>
        4.0865969657897949e-01 -5.4232154041528702e-02</leafValues></_>
    <_>
      <internalNodes>
        0 -1 65061 3.4024531487375498e-03</internalNodes>
      <leafValues>
        3.4281101077795029e-02 -7.1425378322601318e-01</leafValues></_>
    <_>
      <internalNodes>
        0 -1 21387 -7.6039023697376251e-03</internalNodes>
      <leafValues>
        2.1136215329170227e-01 -9.2235371470451355e-02</leafValues></_>
    <_>
      <internalNodes>
        0 -1 39397 2.9070002958178520e-02</internalNodes>
      <leafValues>
        -9.5949582755565643e-02 2.4313245713710785e-01</leafValues></_>
    <_>
      <internalNodes>
        0 -1 44301 -1.5771044127177447e-04</internalNodes>
      <leafValues>
        -1.5712819993495941e-01 1.1086222529411316e-01</leafValues></_>
    <_>
      <internalNodes>
        0 -1 44659 3.4330207854509354e-03</internalNodes>
      <leafValues>
        3.6113698035478592e-02 -5.5256289243698120e-01</leafValues></_>
    <_>
      <internalNodes>
        0 -1 50926 1.4539123512804508e-02</internalNodes>
      <leafValues>
        -8.4393426775932312e-02 2.3887374997138977e-01</leafValues></_>
    <_>
      <internalNodes>
        0 -1 72434 8.6264517158269882e-03</internalNodes>
      <leafValues>
        -5.9385821223258972e-02 3.3074063062667847e-01</leafValues></_>
    <_>
      <internalNodes>
        0 -1 37000 -6.2623426318168640e-02</internalNodes>
      <leafValues>
        -3.5272678732872009e-01 6.0717545449733734e-02</leafValues></_>
    <_>
      <internalNodes>
        0 -1 48016 -1.3794042170047760e-02</internalNodes>
      <leafValues>
        2.9383987188339233e-01 -6.7329660058021545e-02</leafValues></_>
    <_>
      <internalNodes>
        0 -1 49371 3.4104257356375456e-03</internalNodes>
      <leafValues>
        3.1028859317302704e-02 -6.7754757404327393e-01</leafValues></_>
    <_>
      <internalNodes>
        0 -1 58730 -3.6930842325091362e-03</internalNodes>
      <leafValues>
        2.7125382423400879e-01 -6.4509563148021698e-02</leafValues></_>
    <_>
      <internalNodes>
        0 -1 77785 -9.6496596233919263e-04</internalNodes>
      <leafValues>
        -2.2928950190544128e-01 8.4769189357757568e-02</leafValues></_>
    <_>
      <internalNodes>
        0 -1 67083 -3.0630016699433327e-03</internalNodes>
      <leafValues>
        1.9595581293106079e-01 -8.0049715936183929e-02</leafValues></_>
    <_>
      <internalNodes>
        0 -1 73977 -4.0764361619949341e-02</internalNodes>
      <leafValues>
        1.8058295547962189e-01 -1.2630870938301086e-01</leafValues></_>
    <_>
      <internalNodes>
        0 -1 65714 1.8059192225337029e-03</internalNodes>
      <leafValues>
        -7.9592816531658173e-02 2.0982229709625244e-01</leafValues></_>
    <_>
      <internalNodes>
        0 -1 32516 -1.5674448013305664e-01</internalNodes>
      <leafValues>
        5.1520597934722900e-01 -3.2622776925563812e-02</leafValues></_>
    <_>
      <internalNodes>
        0 -1 70810 -5.5092276306822896e-04</internalNodes>
      <leafValues>
        -1.5270443260669708e-01 1.0166417807340622e-01</leafValues></_>
    <_>
      <internalNodes>
        0 -1 71647 -2.4078207206912339e-04</internalNodes>
      <leafValues>
        -1.5025244653224945e-01 1.0231694579124451e-01</leafValues></_>
    <_>
      <internalNodes>
        0 -1 19669 -1.0270055383443832e-02</internalNodes>
      <leafValues>
        2.4579112231731415e-01 -6.6301845014095306e-02</leafValues></_>
    <_>
      <internalNodes>
        0 -1 19669 1.8894157838076353e-03</internalNodes>
      <leafValues>
        -9.3515157699584961e-02 1.8310248851776123e-01</leafValues></_>
    <_>
      <internalNodes>
        0 -1 63861 3.9388136938214302e-03</internalNodes>
      <leafValues>
        2.9052658006548882e-02 -5.9565395116806030e-01</leafValues></_>
    <_>
      <internalNodes>
        0 -1 43541 -2.8306694002822042e-04</internalNodes>
      <leafValues>
        -1.7699618637561798e-01 8.8335841894149780e-02</leafValues></_>
    <_>
      <internalNodes>
        0 -1 43232 4.5166891068220139e-03</internalNodes>
      <leafValues>
        3.4039843827486038e-02 -4.1398641467094421e-01</leafValues></_>
    <_>
      <internalNodes>
        0 -1 59785 1.9369468092918396e-02</internalNodes>
      <leafValues>
        -8.0617360770702362e-02 2.0437000691890717e-01</leafValues></_>
    <_>
      <internalNodes>
        0 -1 47458 -9.9393174052238464e-02</internalNodes>
      <leafValues>
        5.9954881668090820e-01 -2.7287758886814117e-02</leafValues></_>
    <_>
      <internalNodes>
        0 -1 62408 6.7547865910455585e-04</internalNodes>
      <leafValues>
        -9.2277802526950836e-02 1.7846156656742096e-01</leafValues></_>
    <_>
      <internalNodes>
        0 -1 15099 2.7819152921438217e-02</internalNodes>
      <leafValues>
        4.3437555432319641e-02 -4.1476282477378845e-01</leafValues></_>
    <_>
      <internalNodes>
        0 -1 491 -1.2798543088138103e-02</internalNodes>
      <leafValues>
        2.7616402506828308e-01 -5.7824287563562393e-02</leafValues></_>
    <_>
      <internalNodes>
        0 -1 65764 -2.1817681845277548e-03</internalNodes>
      <leafValues>
        -2.1285866200923920e-01 8.0268777906894684e-02</leafValues></_>
    <_>
      <internalNodes>
        0 -1 40211 2.6965130120515823e-02</internalNodes>
      <leafValues>
        3.6216419190168381e-02 -4.7470718622207642e-01</leafValues></_>
    <_>
      <internalNodes>
        0 -1 30740 -7.0786788128316402e-03</internalNodes>
      <leafValues>
        4.4102287292480469e-01 -3.9320275187492371e-02</leafValues></_>
    <_>
      <internalNodes>
        0 -1 66576 4.4226571917533875e-03</internalNodes>
      <leafValues>
        5.0320103764533997e-02 -3.4814983606338501e-01</leafValues></_>
    <_>
      <internalNodes>
        0 -1 24419 -1.1138340458273888e-02</internalNodes>
      <leafValues>
        -3.5934060811996460e-01 4.2279306799173355e-02</leafValues></_>
    <_>
      <internalNodes>
        0 -1 7618 -5.7164166122674942e-02</internalNodes>
      <leafValues>
        -7.5036066770553589e-01 1.8294094130396843e-02</leafValues></_>
    <_>
      <internalNodes>
        0 -1 33975 -7.5563737191259861e-03</internalNodes>
      <leafValues>
        3.1182974576950073e-01 -5.4197568446397781e-02</leafValues></_>
    <_>
      <internalNodes>
        0 -1 64763 -3.4070075489580631e-03</internalNodes>
      <leafValues>
        2.0898707211017609e-01 -7.2485089302062988e-02</leafValues></_>
    <_>
      <internalNodes>
        0 -1 60834 2.5384647306054831e-03</internalNodes>
      <leafValues>
        -8.8146835565567017e-02 1.9467607140541077e-01</leafValues></_>
    <_>
      <internalNodes>
        0 -1 4347 -1.6848938167095184e-01</internalNodes>
      <leafValues>
        -4.6369680762290955e-01 3.4063708037137985e-02</leafValues></_>
    <_>
      <internalNodes>
        0 -1 64342 3.1575104221701622e-03</internalNodes>
      <leafValues>
        5.8367978781461716e-02 -2.5571590662002563e-01</leafValues></_>
    <_>
      <internalNodes>
        0 -1 64612 -8.9429141953587532e-03</internalNodes>
      <leafValues>
        2.1724267303943634e-01 -7.2781831026077271e-02</leafValues></_>
    <_>
      <internalNodes>
        0 -1 20389 7.3348619043827057e-03</internalNodes>
      <leafValues>
        -7.5189255177974701e-02 2.0660276710987091e-01</leafValues></_>
    <_>
      <internalNodes>
        0 -1 13094 -9.3535222113132477e-03</internalNodes>
      <leafValues>
        2.3816442489624023e-01 -6.7167632281780243e-02</leafValues></_>
    <_>
      <internalNodes>
        0 -1 73366 8.7448228150606155e-03</internalNodes>
      <leafValues>
        -8.0592170357704163e-02 1.8001092970371246e-01</leafValues></_>
    <_>
      <internalNodes>
        0 -1 50156 -6.9868415594100952e-02</internalNodes>
      <leafValues>
        -4.0807902812957764e-01 3.7772662937641144e-02</leafValues></_>
    <_>
      <internalNodes>
        0 -1 22670 4.5884531736373901e-01</internalNodes>
      <leafValues>
        -3.9018560200929642e-02 4.0961068868637085e-01</leafValues></_>
    <_>
      <internalNodes>
        0 -1 71542 -2.1779112517833710e-02</internalNodes>
      <leafValues>
        -2.0559483766555786e-01 8.7613612413406372e-02</leafValues></_>
    <_>
      <internalNodes>
        0 -1 72427 -4.0818303823471069e-03</internalNodes>
      <leafValues>
        2.1575738489627838e-01 -6.9271996617317200e-02</leafValues></_>
    <_>
      <internalNodes>
        0 -1 53927 9.4248224049806595e-03</internalNodes>
      <leafValues>
        -6.3640385866165161e-02 2.4357962608337402e-01</leafValues></_>
    <_>
      <internalNodes>
        0 -1 67455 2.2652270272374153e-03</internalNodes>
      <leafValues>
        5.9432800859212875e-02 -2.5469744205474854e-01</leafValues></_>
    <_>
      <internalNodes>
        0 -1 53892 1.5370735200121999e-03</internalNodes>
      <leafValues>
        -9.4585686922073364e-02 1.5938383340835571e-01</leafValues></_>
    <_>
      <internalNodes>
        0 -1 51726 1.1552756186574697e-03</internalNodes>
      <leafValues>
        1.5772852301597595e-01 -1.1127732694149017e-01</leafValues></_>
    <_>
      <internalNodes>
        0 -1 47924 4.2574098333716393e-03</internalNodes>
      <leafValues>
        2.2676229476928711e-02 -7.8354227542877197e-01</leafValues></_>
    <_>
      <internalNodes>
        0 -1 37877 3.5404204390943050e-03</internalNodes>
      <leafValues>
        -1.2013775855302811e-01 1.4247953891754150e-01</leafValues></_>
    <_>
      <internalNodes>
        0 -1 31711 3.3139295876026154e-02</internalNodes>
      <leafValues>
        2.3731378838419914e-02 -6.1249023675918579e-01</leafValues></_>
    <_>
      <internalNodes>
        0 -1 49794 3.7648687139153481e-03</internalNodes>
      <leafValues>
        -5.3590029478073120e-02 2.6931595802307129e-01</leafValues></_>
    <_>
      <internalNodes>
        0 -1 77328 -8.8253971189260483e-03</internalNodes>
      <leafValues>
        -2.8307831287384033e-01 5.2885442972183228e-02</leafValues></_>
    <_>
      <internalNodes>
        0 -1 74989 -5.4005514830350876e-03</internalNodes>
      <leafValues>
        2.7850511670112610e-01 -5.8237198740243912e-02</leafValues></_>
    <_>
      <internalNodes>
        0 -1 25048 3.2196389511227608e-03</internalNodes>
      <leafValues>
        -5.9490669518709183e-02 2.4373336136341095e-01</leafValues></_>
    <_>
      <internalNodes>
        0 -1 43099 8.6562037467956543e-03</internalNodes>
      <leafValues>
        4.0737483650445938e-02 -3.9403301477432251e-01</leafValues></_>
    <_>
      <internalNodes>
        0 -1 67135 7.3363492265343666e-03</internalNodes>
      <leafValues>
        -3.5648893564939499e-02 4.3206453323364258e-01</leafValues></_>
    <_>
      <internalNodes>
        0 -1 36580 1.4463657513260841e-02</internalNodes>
      <leafValues>
        3.4875735640525818e-02 -4.5437940955162048e-01</leafValues></_>
    <_>
      <internalNodes>
        0 -1 46243 -2.3974843323230743e-02</internalNodes>
      <leafValues>
        3.8895791769027710e-01 -4.1098412126302719e-02</leafValues></_>
    <_>
      <internalNodes>
        0 -1 73610 -1.5094446018338203e-02</internalNodes>
      <leafValues>
        2.4467663466930389e-01 -6.7259296774864197e-02</leafValues></_>
    <_>
      <internalNodes>
        0 -1 70794 -6.9863849785178900e-04</internalNodes>
      <leafValues>
        1.6839900612831116e-01 -8.3311073482036591e-02</leafValues></_>
    <_>
      <internalNodes>
        0 -1 68117 5.2049793303012848e-03</internalNodes>
      <leafValues>
        4.9694124609231949e-02 -3.5164991021156311e-01</leafValues></_>
    <_>
      <internalNodes>
        0 -1 68242 -2.5201853713952005e-04</internalNodes>
      <leafValues>
        -1.3536153733730316e-01 1.1015030741691589e-01</leafValues></_>
    <_>
      <internalNodes>
        0 -1 28785 -1.7013130709528923e-02</internalNodes>
      <leafValues>
        2.2406494617462158e-01 -7.2433173656463623e-02</leafValues></_>
    <_>
      <internalNodes>
        0 -1 68132 -2.7573979459702969e-03</internalNodes>
      <leafValues>
        2.6993635296821594e-01 -5.7276289910078049e-02</leafValues></_>
    <_>
      <internalNodes>
        0 -1 5234 1.2094596400856972e-02</internalNodes>
      <leafValues>
        4.1598614305257797e-02 -3.9978447556495667e-01</leafValues></_>
    <_>
      <internalNodes>
        0 -1 17870 6.0865248087793589e-04</internalNodes>
      <leafValues>
        -1.0115332156419754e-01 1.4230296015739441e-01</leafValues></_>
    <_>
      <internalNodes>
        0 -1 18361 -5.8461572043597698e-03</internalNodes>
      <leafValues>
        2.6292529702186584e-01 -6.1658687889575958e-02</leafValues></_>
    <_>
      <internalNodes>
        0 -1 73441 -5.0308629870414734e-03</internalNodes>
      <leafValues>
        4.2423588037490845e-01 -3.5455603152513504e-02</leafValues></_>
    <_>
      <internalNodes>
        0 -1 53329 -5.1308032125234604e-02</internalNodes>
      <leafValues>
        3.2127389311790466e-01 -4.5005127787590027e-02</leafValues></_>
    <_>
      <internalNodes>
        0 -1 49192 4.2061731219291687e-03</internalNodes>
      <leafValues>
        4.1796702891588211e-02 -3.9165210723876953e-01</leafValues></_>
    <_>
      <internalNodes>
        0 -1 16088 2.6381770148873329e-03</internalNodes>
      <leafValues>
        4.9041513353586197e-02 -2.9128116369247437e-01</leafValues></_>
    <_>
      <internalNodes>
        0 -1 16704 -4.4006382813677192e-04</internalNodes>
      <leafValues>
        -2.1041657030582428e-01 9.5906816422939301e-02</leafValues></_>
    <_>
      <internalNodes>
        0 -1 55788 7.4914665892720222e-03</internalNodes>
      <leafValues>
        -5.2694931626319885e-02 3.0488482117652893e-01</leafValues></_>
    <_>
      <internalNodes>
        0 -1 64570 -3.4178292844444513e-03</internalNodes>
      <leafValues>
        2.1416792273521423e-01 -7.2354234755039215e-02</leafValues></_>
    <_>
      <internalNodes>
        0 -1 77357 1.0310409124940634e-03</internalNodes>
      <leafValues>
        6.1388269066810608e-02 -2.2526124119758606e-01</leafValues></_>
    <_>
      <internalNodes>
        0 -1 49759 -9.8689571022987366e-03</internalNodes>
      <leafValues>
        2.6310449838638306e-01 -5.1124859601259232e-02</leafValues></_>
    <_>
      <internalNodes>
        0 -1 68678 5.2620787173509598e-03</internalNodes>
      <leafValues>
        2.2826045751571655e-02 -6.3881999254226685e-01</leafValues></_>
    <_>
      <internalNodes>
        0 -1 27038 -5.1894402131438255e-03</internalNodes>
      <leafValues>
        3.5756778717041016e-01 -4.4568873941898346e-02</leafValues></_></weakClassifiers></stage7>
</opencv_storage>
