<?xml version="1.0"?>
<opencv_storage>
<stage9>
  <maxWeakCount>100</maxWeakCount>
  <stageThreshold>-8.5416001081466675e-01</stageThreshold>
  <weakClassifiers>
    <_>
      <internalNodes>
        0 -1 32055 1.5018604695796967e-02</internalNodes>
      <leafValues>
        1.9852940738201141e-01 6.5196079015731812e-01</leafValues></_>
    <_>
      <internalNodes>
        0 -1 14751 -1.6941353678703308e-02</internalNodes>
      <leafValues>
        3.8614740967750549e-01 -7.1960091590881348e-02</leafValues></_>
    <_>
      <internalNodes>
        0 -1 22332 6.3254386186599731e-03</internalNodes>
      <leafValues>
        -1.6742599010467529e-01 2.4216823279857635e-01</leafValues></_>
    <_>
      <internalNodes>
        0 -1 64133 -2.4381903931498528e-03</internalNodes>
      <leafValues>
        -3.7997421622276306e-01 4.5637525618076324e-02</leafValues></_>
    <_>
      <internalNodes>
        0 -1 43809 -2.7272122679278255e-04</internalNodes>
      <leafValues>
        -2.1742638945579529e-01 1.0958097130060196e-01</leafValues></_>
    <_>
      <internalNodes>
        0 -1 42382 -1.6584178805351257e-01</internalNodes>
      <leafValues>
        5.4856765270233154e-01 -4.7807529568672180e-02</leafValues></_>
    <_>
      <internalNodes>
        0 -1 35999 -7.8620284795761108e-02</internalNodes>
      <leafValues>
        4.8717099428176880e-01 -5.0636798143386841e-02</leafValues></_>
    <_>
      <internalNodes>
        0 -1 57988 4.9646906554698944e-03</internalNodes>
      <leafValues>
        -7.6756604015827179e-02 2.8372636437416077e-01</leafValues></_>
    <_>
      <internalNodes>
        0 -1 70333 -4.5574000105261803e-03</internalNodes>
      <leafValues>
        2.3496958613395691e-01 -1.1149168759584427e-01</leafValues></_>
    <_>
      <internalNodes>
        0 -1 1713 -1.4881597459316254e-01</internalNodes>
      <leafValues>
        2.6060411334037781e-01 -9.7747132182121277e-02</leafValues></_>
    <_>
      <internalNodes>
        0 -1 9785 -3.5893820226192474e-02</internalNodes>
      <leafValues>
        3.2959729433059692e-01 -6.9355934858322144e-02</leafValues></_>
    <_>
      <internalNodes>
        0 -1 13714 2.0217604935169220e-02</internalNodes>
      <leafValues>
        -9.3905977904796600e-02 2.2396640479564667e-01</leafValues></_>
    <_>
      <internalNodes>
        0 -1 72284 -1.7477657645940781e-02</internalNodes>
      <leafValues>
        2.5354251265525818e-01 -8.4158495068550110e-02</leafValues></_>
    <_>
      <internalNodes>
        0 -1 70890 4.5954417437314987e-03</internalNodes>
      <leafValues>
        3.1614594161510468e-02 -6.4103025197982788e-01</leafValues></_>
    <_>
      <internalNodes>
        0 -1 44066 2.9770822729915380e-03</internalNodes>
      <leafValues>
        3.0782071873545647e-02 -5.2976053953170776e-01</leafValues></_>
    <_>
      <internalNodes>
        0 -1 18882 -2.7842946350574493e-02</internalNodes>
      <leafValues>
        3.9762255549430847e-01 -4.4795930385589600e-02</leafValues></_>
    <_>
      <internalNodes>
        0 -1 52696 4.0843929164111614e-03</internalNodes>
      <leafValues>
        -1.2550888955593109e-01 1.5491411089897156e-01</leafValues></_>
    <_>
      <internalNodes>
        0 -1 57213 -1.4391928911209106e-02</internalNodes>
      <leafValues>
        3.1198579072952271e-01 -6.4488127827644348e-02</leafValues></_>
    <_>
      <internalNodes>
        0 -1 46586 6.8176433444023132e-02</internalNodes>
      <leafValues>
        3.5237520933151245e-02 -5.9926611185073853e-01</leafValues></_>
    <_>
      <internalNodes>
        0 -1 491 -1.3343371450901031e-02</internalNodes>
      <leafValues>
        2.6962468028068542e-01 -6.3189767301082611e-02</leafValues></_>
    <_>
      <internalNodes>
        0 -1 58627 -2.5479602627456188e-03</internalNodes>
      <leafValues>
        -2.2862005233764648e-01 7.9662114381790161e-02</leafValues></_>
    <_>
      <internalNodes>
        0 -1 46181 -2.1380489692091942e-02</internalNodes>
      <leafValues>
        3.3085238933563232e-01 -4.7966446727514267e-02</leafValues></_>
    <_>
      <internalNodes>
        0 -1 62479 4.9736308865249157e-03</internalNodes>
      <leafValues>
        -8.2428559660911560e-02 2.1284817159175873e-01</leafValues></_>
    <_>
      <internalNodes>
        0 -1 70319 -1.2020694557577372e-03</internalNodes>
      <leafValues>
        -1.7481526732444763e-01 9.6924930810928345e-02</leafValues></_>
    <_>
      <internalNodes>
        0 -1 16138 -3.7940954789519310e-03</internalNodes>
      <leafValues>
        -1.7720769345760345e-01 9.1813065111637115e-02</leafValues></_>
    <_>
      <internalNodes>
        0 -1 56396 -3.3104594331234694e-03</internalNodes>
      <leafValues>
        -2.5806340575218201e-01 6.3562296330928802e-02</leafValues></_>
    <_>
      <internalNodes>
        0 -1 52730 -8.3194486796855927e-03</internalNodes>
      <leafValues>
        2.9736369848251343e-01 -5.0459418445825577e-02</leafValues></_>
    <_>
      <internalNodes>
        0 -1 72439 7.0477472618222237e-03</internalNodes>
      <leafValues>
        -7.2979874908924103e-02 2.0688542723655701e-01</leafValues></_>
    <_>
      <internalNodes>
        0 -1 57477 -4.5058734714984894e-02</internalNodes>
      <leafValues>
        3.9154565334320068e-01 -3.8735162466764450e-02</leafValues></_>
    <_>
      <internalNodes>
        0 -1 65208 5.4180948063731194e-03</internalNodes>
      <leafValues>
        3.0340116471052170e-02 -5.4862070083618164e-01</leafValues></_>
    <_>
      <internalNodes>
        0 -1 201 -5.4780170321464539e-03</internalNodes>
      <leafValues>
        3.3020135760307312e-01 -4.8169456422328949e-02</leafValues></_>
    <_>
      <internalNodes>
        0 -1 46781 -1.5950571745634079e-02</internalNodes>
      <leafValues>
        -3.0941280722618103e-01 5.1766868680715561e-02</leafValues></_>
    <_>
      <internalNodes>
        0 -1 42483 1.6293108463287354e-02</internalNodes>
      <leafValues>
        1.9520319998264313e-02 -5.8595055341720581e-01</leafValues></_>
    <_>
      <internalNodes>
        0 -1 37093 -4.1513224132359028e-03</internalNodes>
      <leafValues>
        -2.4318498373031616e-01 5.2474550902843475e-02</leafValues></_>
    <_>
      <internalNodes>
        0 -1 20016 3.3554735127836466e-03</internalNodes>
      <leafValues>
        -6.2423128634691238e-02 2.3480384051799774e-01</leafValues></_>
    <_>
      <internalNodes>
        0 -1 8491 6.0095816850662231e-02</internalNodes>
      <leafValues>
        5.0678331404924393e-02 -3.5045415163040161e-01</leafValues></_>
    <_>
      <internalNodes>
        0 -1 40211 -2.7945755049586296e-02</internalNodes>
      <leafValues>
        -4.2638659477233887e-01 2.8175832703709602e-02</leafValues></_>
    <_>
      <internalNodes>
        0 -1 75876 -1.0526093654334545e-02</internalNodes>
      <leafValues>
        2.4207271635532379e-01 -5.8710608631372452e-02</leafValues></_>
    <_>
      <internalNodes>
        0 -1 76864 5.8875638060271740e-03</internalNodes>
      <leafValues>
        4.7861952334642410e-02 -3.0633088946342468e-01</leafValues></_>
    <_>
      <internalNodes>
        0 -1 28474 3.0426274985074997e-02</internalNodes>
      <leafValues>
        3.0413648113608360e-02 -4.4323009252548218e-01</leafValues></_>
    <_>
      <internalNodes>
        0 -1 60020 4.4032474979758263e-03</internalNodes>
      <leafValues>
        -7.3302693665027618e-02 1.8177743256092072e-01</leafValues></_>
    <_>
      <internalNodes>
        0 -1 36768 5.4451161995530128e-03</internalNodes>
      <leafValues>
        -1.3291567564010620e-01 1.2946230173110962e-01</leafValues></_>
    <_>
      <internalNodes>
        0 -1 11487 -2.5935770943760872e-02</internalNodes>
      <leafValues>
        2.4110376834869385e-01 -6.0103941708803177e-02</leafValues></_>
    <_>
      <internalNodes>
        0 -1 25341 4.7275461256504059e-02</internalNodes>
      <leafValues>
        6.0327157378196716e-02 -2.3606872558593750e-01</leafValues></_>
    <_>
      <internalNodes>
        0 -1 3301 1.8592223525047302e-01</internalNodes>
      <leafValues>
        4.0234807878732681e-02 -3.3698299527168274e-01</leafValues></_>
    <_>
      <internalNodes>
        0 -1 5107 1.6807204484939575e-01</internalNodes>
      <leafValues>
        -2.1971179172396660e-02 6.6585552692413330e-01</leafValues></_>
    <_>
      <internalNodes>
        0 -1 52593 -2.7497645467519760e-02</internalNodes>
      <leafValues>
        -1.8448363244533539e-01 6.9356843829154968e-02</leafValues></_>
    <_>
      <internalNodes>
        0 -1 20522 -1.0449562966823578e-01</internalNodes>
      <leafValues>
        4.8307138681411743e-01 -2.9524259269237518e-02</leafValues></_>
    <_>
      <internalNodes>
        0 -1 53046 -5.1461711525917053e-02</internalNodes>
      <leafValues>
        -3.3426484465599060e-01 4.3075706809759140e-02</leafValues></_>
    <_>
      <internalNodes>
        0 -1 14167 9.2385495081543922e-03</internalNodes>
      <leafValues>
        -7.3926359415054321e-02 1.8218436837196350e-01</leafValues></_>
    <_>
      <internalNodes>
        0 -1 31606 -5.6873848661780357e-03</internalNodes>
      <leafValues>
        2.4607188999652863e-01 -5.8447383344173431e-02</leafValues></_>
    <_>
      <internalNodes>
        0 -1 63971 2.1316256374120712e-02</internalNodes>
      <leafValues>
        -5.1756110042333603e-02 2.7792227268218994e-01</leafValues></_>
    <_>
      <internalNodes>
        0 -1 66814 5.0387931987643242e-03</internalNodes>
      <leafValues>
        3.9859075099229813e-02 -3.8532108068466187e-01</leafValues></_>
    <_>
      <internalNodes>
        0 -1 68129 -3.7557817995548248e-03</internalNodes>
      <leafValues>
        1.7346987128257751e-01 -7.9144239425659180e-02</leafValues></_>
    <_>
      <internalNodes>
        0 -1 60924 1.4503335580229759e-02</internalNodes>
      <leafValues>
        -8.4253549575805664e-02 1.6427484154701233e-01</leafValues></_>
    <_>
      <internalNodes>
        0 -1 60839 2.7597909793257713e-03</internalNodes>
      <leafValues>
        -8.2251943647861481e-02 1.5861569344997406e-01</leafValues></_>
    <_>
      <internalNodes>
        0 -1 64763 -3.2220790162682533e-03</internalNodes>
      <leafValues>
        1.7200359702110291e-01 -7.8177027404308319e-02</leafValues></_>
    <_>
      <internalNodes>
        0 -1 64126 4.4190310873091221e-03</internalNodes>
      <leafValues>
        6.2368273735046387e-02 -2.9241535067558289e-01</leafValues></_>
    <_>
      <internalNodes>
        0 -1 25891 6.0345306992530823e-02</internalNodes>
      <leafValues>
        2.2797565907239914e-02 -5.8438509702682495e-01</leafValues></_>
    <_>
      <internalNodes>
        0 -1 42917 -3.7100992631167173e-04</internalNodes>
      <leafValues>
        -1.4838176965713501e-01 8.7295725941658020e-02</leafValues></_>
    <_>
      <internalNodes>
        0 -1 60094 -9.7873814404010773e-02</internalNodes>
      <leafValues>
        4.6899276971817017e-01 -2.5911407545208931e-02</leafValues></_>
    <_>
      <internalNodes>
        0 -1 53472 -5.8332118205726147e-03</internalNodes>
      <leafValues>
        -2.6210001111030579e-01 4.8719942569732666e-02</leafValues></_>
    <_>
      <internalNodes>
        0 -1 69278 -1.1867551133036613e-02</internalNodes>
      <leafValues>
        -1.4888618886470795e-01 8.0022588372230530e-02</leafValues></_>
    <_>
      <internalNodes>
        0 -1 55492 4.3417382985353470e-03</internalNodes>
      <leafValues>
        -7.8152149915695190e-02 1.9006460905075073e-01</leafValues></_>
    <_>
      <internalNodes>
        0 -1 48812 2.8050686232745647e-03</internalNodes>
      <leafValues>
        -9.9922694265842438e-02 1.2708885967731476e-01</leafValues></_>
    <_>
      <internalNodes>
        0 -1 57590 -5.0854485016316175e-04</internalNodes>
      <leafValues>
        2.2122648358345032e-01 -7.2898820042610168e-02</leafValues></_>
    <_>
      <internalNodes>
        0 -1 396 3.2203480601310730e-02</internalNodes>
      <leafValues>
        2.8298603370785713e-02 -5.1214641332626343e-01</leafValues></_>
    <_>
      <internalNodes>
        0 -1 69602 -1.1442867107689381e-03</internalNodes>
      <leafValues>
        1.6835339367389679e-01 -8.0650426447391510e-02</leafValues></_>
    <_>
      <internalNodes>
        0 -1 42902 3.0961718875914812e-03</internalNodes>
      <leafValues>
        2.8803706169128418e-02 -4.6849855780601501e-01</leafValues></_>
    <_>
      <internalNodes>
        0 -1 7465 8.4008630365133286e-03</internalNodes>
      <leafValues>
        -3.5129353404045105e-02 3.5651397705078125e-01</leafValues></_>
    <_>
      <internalNodes>
        0 -1 17898 -8.5603959858417511e-02</internalNodes>
      <leafValues>
        5.2730780839920044e-01 -2.2563053295016289e-02</leafValues></_>
    <_>
      <internalNodes>
        0 -1 54257 2.1304164081811905e-02</internalNodes>
      <leafValues>
        -7.0869781076908112e-02 1.7038491368293762e-01</leafValues></_>
    <_>
      <internalNodes>
        0 -1 29398 4.3327413499355316e-02</internalNodes>
      <leafValues>
        -2.5282926857471466e-02 4.7615003585815430e-01</leafValues></_>
    <_>
      <internalNodes>
        0 -1 59095 -8.0767627805471420e-03</internalNodes>
      <leafValues>
        2.2621934115886688e-01 -5.2178833633661270e-02</leafValues></_>
    <_>
      <internalNodes>
        0 -1 42640 7.7460356988012791e-03</internalNodes>
      <leafValues>
        -9.0572036802768707e-02 1.3379505276679993e-01</leafValues></_>
    <_>
      <internalNodes>
        0 -1 56916 3.5842647776007652e-03</internalNodes>
      <leafValues>
        3.4309454262256622e-02 -3.6965727806091309e-01</leafValues></_>
    <_>
      <internalNodes>
        0 -1 76654 -2.7625926304608583e-04</internalNodes>
      <leafValues>
        -1.6342549026012421e-01 8.0695807933807373e-02</leafValues></_>
    <_>
      <internalNodes>
        0 -1 52424 -1.1507011018693447e-02</internalNodes>
      <leafValues>
        3.2459729909896851e-01 -3.9106003940105438e-02</leafValues></_>
    <_>
      <internalNodes>
        0 -1 7222 1.0265092551708221e-01</internalNodes>
      <leafValues>
        -2.8855705633759499e-02 3.7662762403488159e-01</leafValues></_>
    <_>
      <internalNodes>
        0 -1 72142 -1.3167240656912327e-02</internalNodes>
      <leafValues>
        2.5919818878173828e-01 -4.8668712377548218e-02</leafValues></_>
    <_>
      <internalNodes>
        0 -1 53652 1.5146263875067234e-02</internalNodes>
      <leafValues>
        2.3473974317312241e-02 -5.1154422760009766e-01</leafValues></_>
    <_>
      <internalNodes>
        0 -1 33179 -6.9801593199372292e-03</internalNodes>
      <leafValues>
        6.6843144595623016e-02 -1.6694362461566925e-01</leafValues></_>
    <_>
      <internalNodes>
        0 -1 72316 1.5292880125343800e-02</internalNodes>
      <leafValues>
        -4.4729802757501602e-02 2.8875440359115601e-01</leafValues></_>
    <_>
      <internalNodes>
        0 -1 49866 -8.0487709492444992e-03</internalNodes>
      <leafValues>
        3.5336077213287354e-01 -3.1273931264877319e-02</leafValues></_>
    <_>
      <internalNodes>
        0 -1 68340 3.7128983531147242e-03</internalNodes>
      <leafValues>
        2.3449322208762169e-02 -5.3286266326904297e-01</leafValues></_>
    <_>
      <internalNodes>
        0 -1 63036 7.5885516707785428e-05</internalNodes>
      <leafValues>
        -1.0481355339288712e-01 1.0957100987434387e-01</leafValues></_>
    <_>
      <internalNodes>
        0 -1 73263 2.7423272840678692e-03</internalNodes>
      <leafValues>
        -6.8482361733913422e-02 1.7197667062282562e-01</leafValues></_>
    <_>
      <internalNodes>
        0 -1 34189 3.0246566981077194e-02</internalNodes>
      <leafValues>
        3.3172965049743652e-02 -3.5369077324867249e-01</leafValues></_>
    <_>
      <internalNodes>
        0 -1 77698 -6.5349168144166470e-03</internalNodes>
      <leafValues>
        -2.3402182757854462e-01 4.9438208341598511e-02</leafValues></_>
    <_>
      <internalNodes>
        0 -1 77968 4.6588871628046036e-03</internalNodes>
      <leafValues>
        5.8581005781888962e-02 -2.0570348203182220e-01</leafValues></_>
    <_>
      <internalNodes>
        0 -1 12632 1.0463437065482140e-03</internalNodes>
      <leafValues>
        -8.5245400667190552e-02 1.3824275135993958e-01</leafValues></_>
    <_>
      <internalNodes>
        0 -1 12637 -1.2724503874778748e-02</internalNodes>
      <leafValues>
        2.8422376513481140e-01 -4.9713127315044403e-02</leafValues></_>
    <_>
      <internalNodes>
        0 -1 56854 1.4654915779829025e-02</internalNodes>
      <leafValues>
        1.7979446798563004e-02 -6.5080970525741577e-01</leafValues></_>
    <_>
      <internalNodes>
        0 -1 51311 -4.0224334225058556e-03</internalNodes>
      <leafValues>
        2.6232308149337769e-01 -4.9045536667108536e-02</leafValues></_>
    <_>
      <internalNodes>
        0 -1 12525 1.9574841484427452e-02</internalNodes>
      <leafValues>
        1.7873529344797134e-02 -7.4408262968063354e-01</leafValues></_>
    <_>
      <internalNodes>
        0 -1 10769 -5.6125437840819359e-03</internalNodes>
      <leafValues>
        -2.4884608387947083e-01 4.6753246337175369e-02</leafValues></_>
    <_>
      <internalNodes>
        0 -1 73968 -2.3818686604499817e-03</internalNodes>
      <leafValues>
        1.7254318296909332e-01 -7.0737980306148529e-02</leafValues></_>
    <_>
      <internalNodes>
        0 -1 75637 3.6172396503388882e-03</internalNodes>
      <leafValues>
        3.5969622433185577e-02 -3.6448147892951965e-01</leafValues></_>
    <_>
      <internalNodes>
        0 -1 53675 3.5258245188742876e-03</internalNodes>
      <leafValues>
        3.4062247723340988e-02 -3.3658817410469055e-01</leafValues></_>
    <_>
      <internalNodes>
        0 -1 53922 2.8155553154647350e-03</internalNodes>
      <leafValues>
        -6.5407223999500275e-02 2.0019280910491943e-01</leafValues></_></weakClassifiers></stage9>
</opencv_storage>
